booster[0]:
0:[f144<0.5] yes=1,no=2,missing=1
	1:[f976<0.5] yes=3,no=4,missing=3
		3:leaf=0.125
		4:leaf=-0.588235
	2:[f751<0.5] yes=5,no=6,missing=5
		5:leaf=0.588235
		6:leaf=-0.167598
booster[1]:
0:[f219<0.5] yes=1,no=2,missing=1
	1:[f757<0.5] yes=3,no=4,missing=3
		3:leaf=-0.656635
		4:leaf=0.117358
	2:[f316<0.5] yes=5,no=6,missing=5
		5:leaf=-0.154061
		6:leaf=0.617176
booster[2]:
0:[f39<0.5] yes=1,no=2,missing=1
	1:[f805<0.5] yes=3,no=4,missing=3
		3:leaf=-0.642353
		4:leaf=0.129431
	2:[f363<0.5] yes=5,no=6,missing=5
		5:leaf=0.560237
		6:leaf=-0.0745894
booster[3]:
0:[f229<0.5] yes=1,no=2,missing=1
	1:[f654<0.5] yes=3,no=4,missing=3
		3:leaf=-0.74474
		4:leaf=0.232395
	2:[f458<0.5] yes=5,no=6,missing=5
		5:leaf=-0.091639
		6:leaf=0.659562
booster[4]:
0:[f386<0.5] yes=1,no=2,missing=1
	1:[f830<0.5] yes=3,no=4,missing=3
		3:leaf=0.124964
		4:leaf=-0.598378
	2:[f832<0.5] yes=5,no=6,missing=5
		5:leaf=0.617372
		6:leaf=-0.137709
booster[5]:
0:[f292<0.5] yes=1,no=2,missing=1
	1:[f624<0.5] yes=3,no=4,missing=3
		3:leaf=0.167078
		4:leaf=-0.5909
	2:[f637<0.5] yes=5,no=6,missing=5
		5:leaf=-0.120776
		6:leaf=0.628906
booster[6]:
0:[f546<0.5] yes=1,no=2,missing=1
	1:[f540<0.5] yes=3,no=4,missing=3
		3:leaf=-0.152113
		4:leaf=0.542562
	2:[f935<0.5] yes=5,no=6,missing=5
		5:leaf=-0.533265
		6:leaf=0.125859
booster[7]:
0:[f918<0.5] yes=1,no=2,missing=1
	1:[f328<0.5] yes=3,no=4,missing=3
		3:leaf=0.121204
		4:leaf=-0.547703
	2:[f284<0.5] yes=5,no=6,missing=5
		5:leaf=0.579803
		6:leaf=-0.158753
booster[8]:
0:[f808<0.5] yes=1,no=2,missing=1
	1:[f583<0.5] yes=3,no=4,missing=3
		3:leaf=0.147046
		4:leaf=-0.56483
	2:[f973<0.5] yes=5,no=6,missing=5
		5:leaf=0.619662
		6:leaf=-0.223007
booster[9]:
0:[f262<0.5] yes=1,no=2,missing=1
	1:[f427<0.5] yes=3,no=4,missing=3
		3:leaf=-0.174036
		4:leaf=0.600454
	2:[f871<0.5] yes=5,no=6,missing=5
		5:leaf=0.120691
		6:leaf=-0.542946
booster[10]:
0:[f698<0.5] yes=1,no=2,missing=1
	1:[f421<0.5] yes=3,no=4,missing=3
		3:leaf=0.1461
		4:leaf=-0.571636
	2:[f513<0.5] yes=5,no=6,missing=5
		5:leaf=0.569338
		6:leaf=-0.114579
booster[11]:
0:[f881<0.5] yes=1,no=2,missing=1
	1:[f425<0.5] yes=3,no=4,missing=3
		3:leaf=-0.132234
		4:leaf=0.551899
	2:[f831<0.5] yes=5,no=6,missing=5
		5:leaf=-0.641456
		6:leaf=0.206372
booster[12]:
0:[f397<0.5] yes=1,no=2,missing=1
	1:[f601<0.5] yes=3,no=4,missing=3
		3:leaf=0.572543
		4:leaf=-0.0929469
	2:[f829<0.5] yes=5,no=6,missing=5
		5:leaf=-0.50175
		6:leaf=0.123673
booster[13]:
0:[f784<0.5] yes=1,no=2,missing=1
	1:[f154<0.5] yes=3,no=4,missing=3
		3:leaf=0.142202
		4:leaf=-0.58921
	2:[f618<0.5] yes=5,no=6,missing=5
		5:leaf=-0.186075
		6:leaf=0.560555
booster[14]:
0:[f771<0.5] yes=1,no=2,missing=1
	1:[f906<0.5] yes=3,no=4,missing=3
		3:leaf=0.620594
		4:leaf=-0.166233
	2:[f521<0.5] yes=5,no=6,missing=5
		5:leaf=-0.538162
		6:leaf=0.208337
booster[15]:
0:[f734<0.5] yes=1,no=2,missing=1
	1:[f682<0.5] yes=3,no=4,missing=3
		3:leaf=0.517472
		4:leaf=-0.138599
	2:[f767<0.5] yes=5,no=6,missing=5
		5:leaf=0.161333
		6:leaf=-0.580775
booster[16]:
0:[f268<0.5] yes=1,no=2,missing=1
	1:[f679<0.5] yes=3,no=4,missing=3
		3:leaf=0.133399
		4:leaf=-0.53782
	2:[f29<0.5] yes=5,no=6,missing=5
		5:leaf=-0.176577
		6:leaf=0.52145
booster[17]:
0:[f625<0.5] yes=1,no=2,missing=1
	1:[f88<0.5] yes=3,no=4,missing=3
		3:leaf=0.156822
		4:leaf=-0.575096
	2:[f565<0.5] yes=5,no=6,missing=5
		5:leaf=-0.116712
		6:leaf=0.472312
booster[18]:
0:[f497<0.5] yes=1,no=2,missing=1
	1:[f337<0.5] yes=3,no=4,missing=3
		3:leaf=-0.133623
		4:leaf=0.572895
	2:[f499<0.5] yes=5,no=6,missing=5
		5:leaf=-0.654926
		6:leaf=0.173048
booster[19]:
0:[f571<0.5] yes=1,no=2,missing=1
	1:[f221<0.5] yes=3,no=4,missing=3
		3:leaf=-0.574646
		4:leaf=0.117588
	2:[f690<0.5] yes=5,no=6,missing=5
		5:leaf=0.520807
		6:leaf=-0.133323
booster[20]:
0:[f674<0.5] yes=1,no=2,missing=1
	1:[f655<0.5] yes=3,no=4,missing=3
		3:leaf=-0.543381
		4:leaf=0.129349
	2:[f136<0.5] yes=5,no=6,missing=5
		5:leaf=0.463378
		6:leaf=-0.183196
booster[21]:
0:[f31<0.5] yes=1,no=2,missing=1
	1:[f602<0.5] yes=3,no=4,missing=3
		3:leaf=-0.125364
		4:leaf=0.543303
	2:[f200<0.5] yes=5,no=6,missing=5
		5:leaf=-0.522703
		6:leaf=0.198925
booster[22]:
0:[f321<0.5] yes=1,no=2,missing=1
	1:[f441<0.5] yes=3,no=4,missing=3
		3:leaf=0.133467
		4:leaf=-0.608454
	2:[f657<0.5] yes=5,no=6,missing=5
		5:leaf=-0.120611
		6:leaf=0.508392
booster[23]:
0:[f327<0.5] yes=1,no=2,missing=1
	1:[f777<0.5] yes=3,no=4,missing=3
		3:leaf=0.513525
		4:leaf=-0.137785
	2:[f850<0.5] yes=5,no=6,missing=5
		5:leaf=-0.541361
		6:leaf=0.124694
booster[24]:
0:[f647<0.5] yes=1,no=2,missing=1
	1:[f541<0.5] yes=3,no=4,missing=3
		3:leaf=-0.231851
		4:leaf=0.585651
	2:[f839<0.5] yes=5,no=6,missing=5
		5:leaf=-0.553569
		6:leaf=0.108663
booster[25]:
0:[f982<0.5] yes=1,no=2,missing=1
	1:[f492<0.5] yes=3,no=4,missing=3
		3:leaf=0.230861
		4:leaf=-0.545193
	2:[f890<0.5] yes=5,no=6,missing=5
		5:leaf=0.514122
		6:leaf=-0.146342
booster[26]:
0:[f504<0.5] yes=1,no=2,missing=1
	1:[f695<0.5] yes=3,no=4,missing=3
		3:leaf=-0.111448
		4:leaf=0.490948
	2:[f90<0.5] yes=5,no=6,missing=5
		5:leaf=0.265035
		6:leaf=-0.624104
booster[27]:
0:[f69<0.5] yes=1,no=2,missing=1
	1:[f768<0.5] yes=3,no=4,missing=3
		3:leaf=0.485619
		4:leaf=-0.172443
	2:[f240<0.5] yes=5,no=6,missing=5
		5:leaf=0.146885
		6:leaf=-0.480516
booster[28]:
0:[f641<0.5] yes=1,no=2,missing=1
	1:[f125<0.5] yes=3,no=4,missing=3
		3:leaf=-0.146375
		4:leaf=0.501822
	2:[f364<0.5] yes=5,no=6,missing=5
		5:leaf=-0.466193
		6:leaf=0.086522
booster[29]:
0:[f351<0.5] yes=1,no=2,missing=1
	1:[f306<0.5] yes=3,no=4,missing=3
		3:leaf=0.502482
		4:leaf=-0.143443
	2:[f942<0.5] yes=5,no=6,missing=5
		5:leaf=0.172736
		6:leaf=-0.461568
booster[30]:
0:[f848<0.5] yes=1,no=2,missing=1
	1:[f840<0.5] yes=3,no=4,missing=3
		3:leaf=0.453591
		4:leaf=-0.139069
	2:[f930<0.5] yes=5,no=6,missing=5
		5:leaf=0.11715
		6:leaf=-0.493438
booster[31]:
0:[f597<0.5] yes=1,no=2,missing=1
	1:[f320<0.5] yes=3,no=4,missing=3
		3:leaf=-0.188897
		4:leaf=0.556154
	2:[f663<0.5] yes=5,no=6,missing=5
		5:leaf=-0.419806
		6:leaf=0.120615
booster[32]:
0:[f45<0.5] yes=1,no=2,missing=1
	1:[f690<0.5] yes=3,no=4,missing=3
		3:leaf=0.1715
		4:leaf=-0.452245
	2:[f822<0.5] yes=5,no=6,missing=5
		5:leaf=-0.10005
		6:leaf=0.428208
booster[33]:
0:[f551<0.5] yes=1,no=2,missing=1
	1:[f62<0.5] yes=3,no=4,missing=3
		3:leaf=-0.10859
		4:leaf=0.416094
	2:[f502<0.5] yes=5,no=6,missing=5
		5:leaf=0.0862068
		6:leaf=-0.519278
booster[34]:
0:[f387<0.5] yes=1,no=2,missing=1
	1:[f687<0.5] yes=3,no=4,missing=3
		3:leaf=-0.153364
		4:leaf=0.449387
	2:[f350<0.5] yes=5,no=6,missing=5
		5:leaf=-0.451742
		6:leaf=0.109151
booster[35]:
0:[f316<0.5] yes=1,no=2,missing=1
	1:[f388<0.5] yes=3,no=4,missing=3
		3:leaf=-0.43139
		4:leaf=0.0874444
	2:[f229<0.5] yes=5,no=6,missing=5
		5:leaf=-0.0660412
		6:leaf=0.442248
booster[36]:
0:[f276<0.5] yes=1,no=2,missing=1
	1:[f806<0.5] yes=3,no=4,missing=3
		3:leaf=0.130234
		4:leaf=-0.472601
	2:[f574<0.5] yes=5,no=6,missing=5
		5:leaf=-0.103044
		6:leaf=0.456544
booster[37]:
0:[f139<0.5] yes=1,no=2,missing=1
	1:[f471<0.5] yes=3,no=4,missing=3
		3:leaf=-0.117652
		4:leaf=0.452163
	2:[f636<0.5] yes=5,no=6,missing=5
		5:leaf=-0.409722
		6:leaf=0.0712193
booster[38]:
0:[f149<0.5] yes=1,no=2,missing=1
	1:[f421<0.5] yes=3,no=4,missing=3
		3:leaf=0.493213
		4:leaf=-0.152904
	2:[f859<0.5] yes=5,no=6,missing=5
		5:leaf=-0.479649
		6:leaf=0.220097
booster[39]:
0:[f693<0.5] yes=1,no=2,missing=1
	1:[f598<0.5] yes=3,no=4,missing=3
		3:leaf=-0.450306
		4:leaf=0.0949961
	2:[f219<0.5] yes=5,no=6,missing=5
		5:leaf=-0.145065
		6:leaf=0.427461
booster[40]:
0:[f40<0.5] yes=1,no=2,missing=1
	1:[f352<0.5] yes=3,no=4,missing=3
		3:leaf=-0.450195
		4:leaf=0.0825416
	2:[f147<0.5] yes=5,no=6,missing=5
		5:leaf=-0.0994268
		6:leaf=0.417429
booster[41]:
0:[f531<0.5] yes=1,no=2,missing=1
	1:[f940<0.5] yes=3,no=4,missing=3
		3:leaf=-0.126045
		4:leaf=0.395358
	2:[f502<0.5] yes=5,no=6,missing=5
		5:leaf=-0.401286
		6:leaf=0.14291
booster[42]:
0:[f498<0.5] yes=1,no=2,missing=1
	1:[f840<0.5] yes=3,no=4,missing=3
		3:leaf=0.0741677
		4:leaf=-0.361571
	2:[f630<0.5] yes=5,no=6,missing=5
		5:leaf=0.447519
		6:leaf=-0.0849104
booster[43]:
0:[f623<0.5] yes=1,no=2,missing=1
	1:[f243<0.5] yes=3,no=4,missing=3
		3:leaf=0.472503
		4:leaf=-0.0798026
	2:[f125<0.5] yes=5,no=6,missing=5
		5:leaf=0.11188
		6:leaf=-0.424064
booster[44]:
0:[f454<0.5] yes=1,no=2,missing=1
	1:[f344<0.5] yes=3,no=4,missing=3
		3:leaf=0.499942
		4:leaf=-0.103434
	2:[f689<0.5] yes=5,no=6,missing=5
		5:leaf=-0.343982
		6:leaf=0.0825326
booster[45]:
0:[f771<0.5] yes=1,no=2,missing=1
	1:[f813<0.5] yes=3,no=4,missing=3
		3:leaf=-0.0807647
		4:leaf=0.383793
	2:[f842<0.5] yes=5,no=6,missing=5
		5:leaf=-0.40265
		6:leaf=0.13803
booster[46]:
0:[f221<0.5] yes=1,no=2,missing=1
	1:[f517<0.5] yes=3,no=4,missing=3
		3:leaf=-0.409801
		4:leaf=0.0994538
	2:[f127<0.5] yes=5,no=6,missing=5
		5:leaf=0.43143
		6:leaf=-0.103384
booster[47]:
0:[f74<0.5] yes=1,no=2,missing=1
	1:[f440<0.5] yes=3,no=4,missing=3
		3:leaf=-0.103027
		4:leaf=0.439918
	2:[f380<0.5] yes=5,no=6,missing=5
		5:leaf=0.112153
		6:leaf=-0.374519
booster[48]:
0:[f47<0.5] yes=1,no=2,missing=1
	1:[f976<0.5] yes=3,no=4,missing=3
		3:leaf=0.399885
		4:leaf=-0.0987309
	2:[f500<0.5] yes=5,no=6,missing=5
		5:leaf=0.112442
		6:leaf=-0.401712
booster[49]:
0:[f212<0.5] yes=1,no=2,missing=1
	1:[f432<0.5] yes=3,no=4,missing=3
		3:leaf=-0.0868014
		4:leaf=0.349615
	2:[f617<0.5] yes=5,no=6,missing=5
		5:leaf=-0.409831
		6:leaf=0.132939
